{"fc1.weight": [[0.08880341053009033, -0.09494441002607346, -0.05260435864329338, -0.21449677646160126, -0.07742927223443985, 0.8177657723426819, -0.27600419521331787, 0.4417850375175476, 0.26272329688072205, 0.4872947633266449, -0.031125063076615334, 0.26276636123657227, 0.22667865455150604, 0.5370184779167175, -0.24136804044246674, 0.05060911923646927, 0.6387638449668884], [-0.1111505776643753, 0.13455888628959656, -0.1793515682220459, -0.17616048455238342, -0.24079450964927673, 0.2280445098876953, 0.06264770030975342, -0.18946169316768646, 0.18419724702835083, -0.08623349666595459, -0.17666548490524292, -0.11241275072097778, -0.18455342948436737, -0.21187886595726013, -0.06666678190231323, -0.10662594437599182, -0.23596039414405823], [-0.028634410351514816, -0.0045281765051186085, 0.10633496940135956, 0.13561317324638367, -0.22118239104747772, 0.2551019489765167, -0.12161727249622345, -0.04512985795736313, 0.19267618656158447, 0.2535274922847748, 0.11140172928571701, 0.09096454828977585, 0.022566048428416252, -0.12594187259674072, 0.0003891516535077244, -0.25447946786880493, -0.1025334894657135], [0.14419054985046387, 0.22102618217468262, -0.22239048779010773, -0.016473621129989624, 0.13870155811309814, 0.09425681829452515, -0.17105256021022797, -0.14961278438568115, 0.0836482048034668, 0.1149766743183136, 0.01241225004196167, 0.1990266740322113, -0.16713957488536835, 0.16697654128074646, -0.16415013372898102, -0.03448347747325897, 0.18241828680038452], [-0.10550183057785034, 0.08208438754081726, -0.02491098642349243, 0.010581135749816895, 0.0890963077545166, -0.14137426018714905, -0.08578914403915405, 0.10482659935951233, 0.22595930099487305, 0.03167077898979187, -0.2048412412405014, 0.16119548678398132, -0.024773970246315002, -0.21604955196380615, 0.014098107814788818, -0.18168729543685913, -0.2232675850391388], [-0.21835900843143463, 0.13884834945201874, -0.06666991859674454, -0.04320107027888298, 0.059099163860082626, -1.2175123691558838, 0.14286693930625916, 0.2942144572734833, -0.16063567996025085, -1.4505261182785034, -0.18203188478946686, -0.14810489118099213, 0.013002721592783928, -0.9112486839294434, 0.14834341406822205, 0.009237675927579403, -0.9209081530570984], [-0.08823463320732117, 0.2105443924665451, 0.1510825902223587, -0.06315691024065018, 0.11160007864236832, 0.07006415724754333, -0.03835679218173027, 0.04445352777838707, -0.032766103744506836, -0.04064921662211418, -0.00029316628933884203, -0.12351838499307632, -0.23091213405132294, -0.2059992104768753, -0.014629587531089783, -0.012355538085103035, -0.32651811838150024], [-0.30682674050331116, -0.15546414256095886, -0.06780394166707993, -1.0021030902862549, 0.24834103882312775, 0.8725579380989075, 0.10948826372623444, -1.054216742515564, 0.2816391885280609, 0.7116892337799072, -0.008692188188433647, -0.07326199859380722, 0.2942466139793396, 0.2957029938697815, -0.28151935338974, -0.21637104451656342, 0.6103100776672363], [-0.09772373735904694, 0.2790047824382782, -0.047665975987911224, 0.4017833471298218, -0.08689673244953156, -2.5564072132110596, -0.02301991917192936, 0.7030399441719055, -0.22099818289279938, -2.3648202419281006, 0.07649943977594376, -0.3758619427680969, 0.07390930503606796, -2.1354527473449707, 0.04448573291301727, -0.009800971485674381, -1.8247575759887695], [-0.04847784340381622, 0.2219688594341278, -0.17216995358467102, 0.015501103363931179, 0.10545256733894348, -0.9922674298286438, -0.18215562403202057, -0.07917439192533493, -0.2605472207069397, -0.5828615427017212, -0.039610523730516434, -0.24003535509109497, 0.10106121748685837, -0.8194605708122253, 0.1971253752708435, 0.14863862097263336, -0.3936017155647278], [-0.2644668221473694, 0.2001369446516037, 0.06966669112443924, -0.04898066818714142, 0.06731323897838593, -0.9042092561721802, -0.004242932423949242, 0.2108771950006485, -0.12994076311588287, -1.017184853553772, 0.12246565520763397, -0.35908639430999756, 0.05065581575036049, -0.47896865010261536, 0.04689167067408562, -0.17678235471248627, -0.5617392659187317], [-0.1275615394115448, -0.22783812880516052, 0.07050910592079163, -0.16924859583377838, 0.030190587043762207, 0.18384867906570435, -0.17624302208423615, -0.03449764847755432, -0.22242510318756104, 0.09521299600601196, 0.18717724084854126, -0.20096251368522644, 0.16228222846984863, -0.04110434651374817, -0.008981496095657349, 0.00986441969871521, -0.10578355193138123], [-0.0799008160829544, 0.15687602758407593, -0.23179468512535095, 0.10456103086471558, 0.08046737313270569, -0.17567762732505798, -0.22555036842823029, 0.22765839099884033, -0.12523844838142395, 0.07121163606643677, -0.07558418810367584, -0.1352013498544693, 0.0759420096874237, 0.10823622345924377, -0.2084415704011917, 0.0005483776330947876, -0.13957861065864563], [-0.17557919025421143, 0.20857775211334229, 0.15554654598236084, -0.209696426987648, -0.19980409741401672, 0.1651158630847931, -0.1899537593126297, -0.04445849359035492, 0.22404220700263977, 0.19322609901428223, -0.07041952013969421, 0.16339430212974548, -0.15778633952140808, 0.03174668550491333, 0.24025610089302063, -0.10998031497001648, 0.05946817994117737], [0.23391714692115784, -0.6584506630897522, -0.15964168310165405, 0.46501579880714417, -0.2648800313472748, 2.0152642726898193, 0.23390597105026245, -0.20918028056621552, 0.016406821087002754, 2.2024900913238525, 0.2262936234474182, 0.1719704419374466, -0.20643794536590576, 1.5625139474868774, 0.20014405250549316, -0.07129953801631927, 1.4919911623001099], [-0.2199990451335907, 0.047757118940353394, -0.16523265838623047, -0.1327681839466095, -0.007163152098655701, 0.08621177077293396, -0.2004772424697876, -0.20551007986068726, 0.2063082456588745, -0.09416960179805756, -0.019404157996177673, -0.22366110980510712, -0.21050778031349182, 0.10526427626609802, -0.009458720684051514, 0.2220941185951233, -0.11626742780208588], [0.009564518928527832, 0.15131348371505737, -0.1837642341852188, 0.1946466863155365, 0.24183273315429688, 0.07278913259506226, -0.01301562786102295, 0.20729881525039673, -0.10747350752353668, -0.21922528743743896, -0.12499219924211502, -0.17097851634025574, -0.0151023268699646, -0.012268036603927612, -0.15311914682388306, 0.11951896548271179, -0.06302942335605621], [-0.024557724595069885, -0.04225333034992218, -0.21305635571479797, -0.003649502992630005, -0.12713229656219482, -0.24128061532974243, 0.2220495641231537, -0.11162182688713074, -0.1986931413412094, 0.10865339636802673, -0.18403664231300354, -0.18455356359481812, 0.0844663679599762, 0.07656800746917725, -0.11967724561691284, -0.0011919140815734863, 0.21970251202583313], [0.11161532998085022, 0.2396703064441681, -0.06709237396717072, 0.03441709280014038, -0.07081156969070435, -0.13028399646282196, -0.0911291092634201, -0.048252180218696594, -0.12313321232795715, -0.17203301191329956, 0.06872659921646118, -0.1402197778224945, -0.10573095083236694, -0.0646527111530304, -0.12286800146102905, -0.010478779673576355, 0.1313406527042389], [-0.11503957211971283, -0.3505047559738159, 0.03200630098581314, 0.12409577518701553, 0.1785651296377182, 2.1240272521972656, -0.2544403672218323, -0.1611306369304657, 0.24636472761631012, 1.9423329830169678, -0.33496561646461487, 0.45853662490844727, 0.3127666115760803, 1.7837220430374146, -0.10091818124055862, 0.053132493048906326, 1.3638755083084106], [0.029544809833168983, -0.03664762154221535, 0.07042205333709717, -0.6932110786437988, 0.11286798864603043, 3.4495365619659424, 0.22456888854503632, -1.9886219501495361, 0.11683628708124161, 3.2746200561523438, -0.02549857273697853, 0.05565338954329491, -0.15170486271381378, 2.9394314289093018, -0.12330886721611023, 0.002043047221377492, 2.948444128036499], [0.38910919427871704, -0.4471524655818939, 0.11614269763231277, 0.5786932706832886, 0.05014452710747719, 2.6174511909484863, -0.06117818132042885, 0.1973949372768402, -0.08022643625736237, 2.6009645462036133, -0.04630501940846443, 0.25191304087638855, -0.3492468297481537, 2.1786551475524902, 0.11565489321947098, -0.01859387755393982, 2.252866268157959], [-0.1350596696138382, 0.04375069960951805, 0.10583189874887466, -0.18279370665550232, 0.03143523633480072, -0.1802653968334198, -0.13047441840171814, 0.011847002431750298, -0.05282071605324745, -0.14716839790344238, -0.03970274329185486, -0.27367863059043884, 0.010283935815095901, -0.07558602094650269, 0.004877930972725153, 0.14814840257167816, -0.06840413808822632], [-0.2615194618701935, 0.18601274490356445, -0.005698729772120714, -0.19020521640777588, 0.1861887276172638, 0.08726532757282257, 0.06497088819742203, 0.06046436354517937, -0.19764354825019836, 0.017829596996307373, 0.11949434131383896, 0.04016343131661415, 0.13145995140075684, -0.025598280131816864, -0.13045623898506165, -0.1987074315547943, -0.20946642756462097], [-0.015580013394355774, 0.06696119904518127, 0.14040648937225342, -0.07888604700565338, -0.17460934817790985, -0.18310582637786865, 0.1277507245540619, 0.23559290170669556, -0.21840748190879822, -0.16708628833293915, -0.09606261551380157, 0.08726534247398376, 0.2053251564502716, 0.14704778790473938, 0.03436392545700073, -0.22781085968017578, -0.05279463529586792], [-0.00356355425901711, 0.006220507435500622, 0.15526631474494934, -0.09570468217134476, 0.1687183827161789, 0.083913154900074, -0.048101939260959625, -0.034600380808115005, -0.171145960688591, -0.15196838974952698, 0.06888455897569656, 0.2453443706035614, 0.03222782164812088, -0.12564100325107574, -0.3219486474990845, -0.10532506555318832, 0.1801856905221939], [-0.1799836903810501, 0.16041713953018188, 0.06448322534561157, -0.14143437147140503, 0.12579777836799622, 0.19128215312957764, -0.16884471476078033, -0.22821176052093506, -0.21983548998832703, -0.1026909202337265, 0.15319323539733887, -0.16456684470176697, -0.218460813164711, 0.22901985049247742, 0.14368361234664917, -0.030568808317184448, -0.11817359179258347], [0.007897377014160156, -0.02828630805015564, 0.20537352561950684, 0.049117863178253174, 0.11383771896362305, -0.07658761739730835, -0.038248464465141296, 0.062357813119888306, -0.1945044994354248, -0.08502781391143799, -0.21386925876140594, -0.14300933480262756, -0.20104849338531494, 0.0836024284362793, -0.20296889543533325, 0.024681657552719116, -0.23349453508853912], [-0.06501704454421997, 0.1414685696363449, -0.15563692152500153, -0.014062951318919659, 0.2238677740097046, 0.22930392622947693, -0.16004325449466705, 0.06456883251667023, 0.03904114291071892, 0.2600180208683014, 0.02868809923529625, 0.17794446647167206, 0.16182583570480347, 0.00591804925352335, -0.14612644910812378, -0.22707177698612213, 0.042050205171108246], [0.0907214879989624, 0.04547342658042908, -0.23335975408554077, -0.23630225658416748, -0.1683492362499237, 0.14385873079299927, -0.22272761166095734, -0.21764005720615387, -0.17004430294036865, 0.03234422206878662, 0.02392411231994629, -0.23149359226226807, 0.14548835158348083, -0.10013528168201447, -0.08858656883239746, -0.20933976769447327, 0.16841498017311096], [0.26579272747039795, -0.1519021987915039, -0.2020723968744278, 0.04985905811190605, 0.244822159409523, 1.4837901592254639, 0.031857188791036606, -0.20382162928581238, 0.26420414447784424, 1.3960634469985962, -0.38920140266418457, 0.08865083009004593, 0.11513035744428635, 1.1976889371871948, -0.0009601226774975657, -0.23190930485725403, 1.0457475185394287], [0.3393850326538086, -0.3867354691028595, 0.06545229256153107, 0.3941744565963745, 0.10174627602100372, 2.0136654376983643, -0.34942856431007385, 0.23874783515930176, 0.13532324135303497, 1.9967341423034668, -0.11931771785020828, 0.290333092212677, 0.13439886271953583, 1.6660043001174927, 0.009462849237024784, -0.19978193938732147, 1.3128561973571777], [0.3577023446559906, -0.2966082990169525, -0.1628292202949524, 0.4350590705871582, -0.2444591224193573, 2.0846312046051025, 0.25582608580589294, -0.1576002538204193, -0.1736825704574585, 2.1529462337493896, 0.20589947700500488, 0.03470434993505478, -0.13869956135749817, 1.5980356931686401, 0.05374326556921005, -0.00925581343472004, 1.5034838914871216], [-0.28825023770332336, 0.27593010663986206, 0.03227439895272255, 0.2583274245262146, -0.10397684574127197, -1.0356587171554565, 0.013640190474689007, 0.3735268712043762, -0.03664812445640564, -0.7411440014839172, 0.11691777408123016, -0.1965879201889038, -0.026032257825136185, -0.41275927424430847, 0.10261739790439606, -0.29445627331733704, -0.8701298832893372], [-0.25495415925979614, 0.11660896986722946, 0.017763666808605194, -0.16526350378990173, -0.28082531690597534, -0.44585901498794556, 0.05609475076198578, 0.09625544399023056, 0.13933566212654114, -0.37778013944625854, 0.11320506036281586, 0.02262161113321781, 0.001610325532965362, -0.34646931290626526, 0.17344427108764648, -0.18800286948680878, -0.4729086458683014], [-0.08648375421762466, -0.006427789106965065, 0.07665074616670609, -0.2240239679813385, 0.14790968596935272, -0.15231604874134064, -0.06512928009033203, 0.061309605836868286, -0.2174295037984848, 0.0937247946858406, -0.2557874321937561, -0.08621124923229218, 0.20851190388202667, -0.11787014454603195, 0.1098204255104065, 0.051443781703710556, 0.07000748068094254], [-0.19519078731536865, 0.10776039958000183, -0.139957457780838, 0.019987165927886963, 0.07399320602416992, -0.10191650688648224, -0.12976062297821045, 0.17595946788787842, -0.004305422306060791, -0.09017719328403473, -0.09095880389213562, 0.206846684217453, 0.18233346939086914, 0.04937031865119934, 0.1590844690799713, -0.17133428156375885, 0.1848025918006897], [-0.190021350979805, 0.12257504463195801, -0.03552080690860748, -0.08078348636627197, -0.011316063813865185, -0.7940309047698975, 0.06830839067697525, 0.17766045033931732, -0.12166564911603928, -0.6422230005264282, -0.02198672853410244, -0.10214319825172424, 0.028785603120923042, -0.6169344782829285, 0.05427251011133194, 0.060802314430475235, -0.7220838069915771], [-0.32089728116989136, -0.0020955009385943413, -0.0025726344902068377, -0.03296007961034775, 0.20970593392848969, -0.6428372859954834, -0.08001343905925751, -0.04521753638982773, -0.15738844871520996, -0.5119752287864685, 0.02763618342578411, -0.18270865082740784, -0.038611799478530884, -0.19744190573692322, 0.1857622116804123, 0.07829202711582184, -0.5360277891159058], [-0.03389319032430649, 0.12755130231380463, 0.19124048948287964, -0.171628937125206, -0.08273440599441528, 0.04325069114565849, 0.041328225284814835, -0.35398590564727783, -0.01632040925323963, 0.19366370141506195, 0.17502164840698242, 0.11733987927436829, -0.15717807412147522, 0.15416976809501648, -0.154337540268898, -0.14552277326583862, 0.10970300436019897], [-0.20545253157615662, 0.011569291353225708, -0.15872204303741455, 0.12339743971824646, 0.06241324543952942, -0.20828604698181152, -0.18371111154556274, 0.21004760265350342, 0.021090596914291382, -0.05746471881866455, 0.09052857756614685, 0.11634942889213562, -0.1753733903169632, 0.03609442710876465, 0.08046990633010864, -0.08592748641967773, 0.06917497515678406], [-0.20737050473690033, 0.08823910355567932, -0.09693919122219086, -0.06449548900127411, -0.23689664900302887, -0.1332138180732727, -0.10569216310977936, 0.0029562711715698242, -0.2089196890592575, 0.10567522048950195, 0.17490941286087036, -0.07944554090499878, -0.235085129737854, 0.2337537705898285, 0.16796565055847168, 0.2411929965019226, -0.04686996340751648], [-0.06681295484304428, 0.10147511959075928, 0.09088671952486038, -0.21336276829242706, 0.009254387579858303, 0.0031821150332689285, 0.15946465730667114, 0.15825749933719635, -0.032839931547641754, 0.2096930295228958, -0.11009367555379868, -0.23286691308021545, 0.16488710045814514, 0.15338368713855743, -0.11951784044504166, -0.2289184033870697, 0.059569451957941055], [0.22354231774806976, -0.3180522918701172, -0.014627354219555855, 0.2942715585231781, 0.08337181806564331, 1.8145548105239868, -0.309607595205307, 0.14354516565799713, 0.23956415057182312, 2.0867109298706055, -0.23616783320903778, 0.4658504128456116, 0.21381475031375885, 1.510413408279419, -0.27345964312553406, 0.11341516673564911, 1.6710456609725952], [0.17871633172035217, -0.03430895507335663, -0.18505054712295532, 0.22493073344230652, -0.11626993119716644, 0.00779646635055542, -0.0946098268032074, 0.023868978023529053, -0.1771012842655182, -0.2359100878238678, -0.15436901152133942, -0.06351086497306824, 0.057289302349090576, 0.015234023332595825, 0.160630464553833, 0.09479007124900818, -0.2018568068742752], [-0.1502547413110733, 0.21613553166389465, -0.21309129893779755, 0.22695067524909973, -0.11361194401979446, -0.1662842482328415, -0.13418042659759521, -0.1279357671737671, 0.1201511099934578, 0.2171456664800644, 0.2018427699804306, -0.20925454795360565, 0.01881444826722145, -0.10528561472892761, -0.1113826259970665, 0.07025805115699768, 0.07000186294317245], [-0.10469862818717957, 0.12132057547569275, 0.08508321642875671, -0.09641444683074951, -0.19673119485378265, -0.0599176287651062, 0.23218414187431335, 0.18035298585891724, 0.015565633773803711, -0.10057571530342102, 0.23794952034950256, -0.2412317544221878, -0.20701982080936432, -0.23215514421463013, -0.1677505224943161, -0.23967485129833221, -0.12014331668615341], [-0.11528977751731873, 0.12780579924583435, 0.06150820851325989, 0.16916322708129883, -0.018467485904693604, -0.15324676036834717, -0.13020703196525574, -0.08300474286079407, 0.027659296989440918, -0.003911405801773071, -0.07900504767894745, -0.04343056678771973, -0.09427553415298462, 0.1980198621749878, 0.11792343854904175, -0.06085687875747681, -0.18550918996334076], [-0.22560660541057587, 0.06967601180076599, -0.1925066113471985, 0.2098216414451599, 0.17164751887321472, 0.16957169771194458, -0.0703187882900238, 0.17975381016731262, -0.07415296137332916, -0.24135489761829376, -0.1796722412109375, -0.06986713409423828, -0.04624520242214203, 0.10694509744644165, -0.0015576928853988647, -0.2280324101448059, -0.1617431640625], [-0.1805500090122223, 0.03723037242889404, 0.036980535835027695, -0.1624203473329544, 0.038541581481695175, -1.3390949964523315, 0.08489296585321426, 0.35779091715812683, 0.09589128196239471, -1.0859781503677368, -0.12277807295322418, -0.48487985134124756, -0.10527610033750534, -1.0035544633865356, -0.13666857779026031, 0.09298542886972427, -0.9755193591117859], [-0.2374362349510193, 0.3255278170108795, 0.004627485293895006, 0.3033713400363922, -0.10287714749574661, -1.2923054695129395, -0.026524808257818222, 0.41874706745147705, -0.20071282982826233, -0.9735548496246338, 0.035981468856334686, -0.16473038494586945, 0.017451997846364975, -1.03864324092865, 0.18265002965927124, -0.21181270480155945, -0.6494085192680359], [-0.1158064752817154, 0.023527681827545166, -0.21088600158691406, 0.22236183285713196, -0.07433076202869415, -0.11955257505178452, 0.009842932224273682, -0.20634980499744415, 0.006358414888381958, 0.026689529418945312, -0.01278504729270935, 0.05139842629432678, -0.0929071307182312, 0.11875155568122864, -0.1589111089706421, -0.1039530336856842, 0.05628785490989685], [0.233066588640213, 0.008726388216018677, 0.1664631962776184, 0.10214069485664368, -0.0021414905786514282, -0.12639310956001282, -0.20378072559833527, 0.09970825910568237, -0.09305007755756378, 0.22842717170715332, -0.059745341539382935, 0.08110952377319336, -0.19838878512382507, 0.12378928065299988, -0.17328816652297974, -0.09362907707691193, -0.09311707317829132], [0.32495999336242676, -0.5330921411514282, 0.12162523716688156, 0.7531576156616211, -0.06427428126335144, 2.3446643352508545, -0.11153517663478851, -0.10640231519937515, -0.06262101978063583, 2.578948497772217, 0.11826325953006744, 0.08811145275831223, -0.0444205179810524, 1.9730703830718994, 0.12136229127645493, -0.20503830909729004, 1.7162039279937744], [-0.3698136508464813, 0.21726147830486298, 0.07591740787029266, 0.828104555606842, -0.008285894058644772, -2.948418378829956, 0.030456528067588806, 0.8269928693771362, -0.2268432378768921, -2.9174721240997314, 0.09951981157064438, -0.494255006313324, 0.08155205100774765, -2.1354377269744873, 0.05133148282766342, -0.04310441017150879, -2.2653069496154785], [0.04579497128725052, 0.1258522868156433, -0.011234717443585396, -1.0813957452774048, 0.2731999158859253, 1.374903917312622, 0.1332048624753952, -1.3612992763519287, 0.06492438167333603, 1.6059178113937378, -0.31089547276496887, 0.10186415165662766, 0.2431870400905609, 1.055855393409729, -0.1991215944290161, -0.11085112392902374, 0.9751110672950745], [-0.0006487369537353516, -0.19301986694335938, 0.02895304560661316, -0.04903414845466614, 0.02724778652191162, 0.17393073439598083, -0.2162606120109558, -0.0327160507440567, 0.017030656337738037, -0.13188442587852478, -0.10958577692508698, -0.008479595184326172, -0.05129137635231018, -0.04844924807548523, 0.10101553797721863, 0.08670532703399658, -0.13552024960517883], [0.11149796843528748, -0.2253589630126953, -0.011356309056282043, 0.20648816227912903, -0.004017859697341919, -0.18692609667778015, -0.17219656705856323, -0.0882585197687149, 0.15612521767616272, -0.15116454660892487, -0.18344241380691528, -0.1264481544494629, -0.1311628818511963, 0.21221867203712463, 0.11915203928947449, 0.06448635458946228, 0.06291913986206055], [-0.2766312062740326, 0.1703735888004303, 0.08461429178714752, 0.09809187054634094, -0.050862643867731094, -1.9434810876846313, -0.06030203774571419, 0.34561702609062195, -0.044255636632442474, -1.5173951387405396, -0.2843351364135742, -0.3961625099182129, -0.038378238677978516, -1.4804044961929321, 0.2526665925979614, 0.042613349854946136, -1.305538296699524], [0.12476255744695663, -0.3633767068386078, -0.30356311798095703, 0.2911852300167084, 0.26275408267974854, 1.9071296453475952, -0.040366530418395996, 0.08279255777597427, 0.05695365369319916, 1.9733349084854126, -0.11569125205278397, 0.39675402641296387, 0.13692626357078552, 1.5579856634140015, -0.2314854860305786, 0.12787534296512604, 1.5689677000045776], [0.16429463028907776, -0.1230531856417656, -0.23263630270957947, 0.05160054564476013, 0.1031915545463562, -0.10096324980258942, 0.0643819272518158, -0.16412943601608276, 0.03902462124824524, -0.16631653904914856, -0.08041234314441681, -0.19837966561317444, 0.02153119444847107, -0.05548481643199921, -0.06751199066638947, -0.23369070887565613, -0.2331528216600418], [-0.20961350202560425, 0.010449498891830444, -0.07689608633518219, -0.023943111300468445, -0.07547205686569214, 0.03206035494804382, 0.03754827380180359, -0.07764364778995514, 0.21880045533180237, -0.20456232130527496, -0.17937445640563965, 0.0536571741104126, -0.1550561785697937, -0.03582987189292908, -0.0597032755613327, 0.13505715131759644, 0.0037607401609420776], [0.22002865374088287, -0.09294748306274414, -0.09483633190393448, -0.13740642368793488, -0.13932400941848755, 0.1423756629228592, -0.06463166326284409, 0.16223302483558655, 0.0016061769565567374, 0.19658474624156952, 0.15137985348701477, 0.017029723152518272, -0.09739241003990173, 0.09747221320867538, -0.10337287187576294, 0.025004219263792038, -0.1104772537946701], [0.1112920343875885, 0.17310866713523865, -0.2388211488723755, -0.154930979013443, -0.2399476319551468, 0.1857423484325409, 0.17479005455970764, -0.16968455910682678, -0.04822815954685211, 0.010705649852752686, -0.014880940318107605, 0.17047876119613647, -0.10876098275184631, 0.2265065312385559, -0.18284472823143005, -0.1836555451154709, -0.0751430094242096], [0.2831350564956665, -0.19095751643180847, -0.3211607038974762, 0.35159003734588623, -0.08056538552045822, 1.618620753288269, -0.13877947628498077, 0.2904259264469147, 0.3289423882961273, 1.5425889492034912, -0.10094759613275528, 0.37031927704811096, -0.12354464828968048, 1.3654037714004517, 0.09896378219127655, 0.03617861121892929, 1.2158342599868774], [-0.08595423400402069, 0.2148095667362213, 0.22277089953422546, -0.18333560228347778, -0.23860904574394226, 0.057476043701171875, -0.0880352109670639, -0.197844997048378, -0.005369886755943298, -0.17533773183822632, -0.18243780732154846, -0.08604995906352997, -0.16150742769241333, -0.053033992648124695, 0.02058151364326477, 0.15218201279640198, -0.14380115270614624], [0.16188164055347443, -0.6770517826080322, 0.05730874836444855, 0.4370492696762085, -0.03941812738776207, 2.0977160930633545, -0.044365763664245605, -0.3006691038608551, 0.009016543626785278, 2.2162418365478516, 0.2764354348182678, 0.04892418906092644, -0.21960850059986115, 1.5540250539779663, 0.18954256176948547, -0.14514075219631195, 1.3635820150375366], [-0.17824947834014893, 0.12171193957328796, -0.20490097999572754, -0.09458203613758087, 0.16761693358421326, -0.055757761001586914, 0.05024963617324829, 0.04670330882072449, 0.10481929779052734, 0.002799972891807556, 0.08721902966499329, -0.20570500195026398, 0.021917372941970825, -0.03703626990318298, -0.2073514461517334, -0.15350833535194397, 0.2382626235485077], [-0.1426159143447876, 0.12456813454627991, -0.08939006924629211, -0.05605222284793854, -0.10051818192005157, 0.2397674322128296, 0.08599188923835754, 0.15418758988380432, 0.18971800804138184, 0.09556534886360168, -0.20643426477909088, 0.1335277557373047, 0.07213336229324341, -0.06350778043270111, -0.21629370748996735, -0.12994244694709778, 0.2344871461391449], [-0.16523537039756775, 0.0001684427261352539, 0.07934293150901794, 0.23152422904968262, 0.10724592208862305, 0.06501877307891846, -0.10929624736309052, 0.014072060585021973, 0.01952230930328369, 0.11848443746566772, -0.02097231149673462, 0.19083520770072937, -0.22888070344924927, -0.02508622407913208, -0.09901411831378937, -0.030328407883644104, 0.03734752535820007], [0.05266212299466133, 0.2836684286594391, 0.0719788521528244, 0.08349131792783737, -0.13638226687908173, -0.5334712862968445, 0.11890596896409988, 0.20899352431297302, -0.05372999608516693, -0.484385222196579, -0.12309344112873077, -0.18602503836154938, 0.03102601319551468, -0.10612373054027557, -0.08822864294052124, -0.05856068432331085, -0.29438239336013794], [-0.14361780881881714, -0.023886054754257202, 0.12499627470970154, -0.22201725840568542, -0.11847012490034103, 0.07508957386016846, 0.043870389461517334, -0.15411478281021118, -0.14871537685394287, -0.12762700021266937, -0.16590744256973267, 0.0648481547832489, -0.06868259608745575, -0.19588473439216614, -0.19584988057613373, 0.0044163912534713745, 0.168724924325943], [0.14413532614707947, 0.1903822124004364, -0.08331316709518433, -0.005413730628788471, 0.03645116835832596, -0.2283514440059662, 0.2196865677833557, -0.06002938747406006, -0.1750403493642807, -0.24937650561332703, -0.13223423063755035, 0.1101718619465828, -0.0005344811361283064, 0.041629232466220856, 0.03156338632106781, -0.19467225670814514, -0.07244517654180527], [0.4173731505870819, -0.4436695873737335, 0.12719827890396118, 0.6635891795158386, -0.08714477717876434, 2.1378893852233887, -0.1372002363204956, 0.08931900560855865, -0.08532503992319107, 1.9069068431854248, -0.016953542828559875, 0.1861753761768341, -0.19355279207229614, 2.011442184448242, 0.17521221935749054, -0.14918577671051025, 1.5995304584503174], [-0.21235384047031403, 0.22058993577957153, -0.14710821211338043, 0.21281757950782776, -0.05212530493736267, -0.1799502670764923, 0.07093673944473267, -0.06993065774440765, -0.02953276038169861, -0.24200235307216644, -0.13033658266067505, 0.15097972750663757, 0.10239598155021667, 0.20717310905456543, 0.14201566576957703, -0.14305849373340607, 0.03897172212600708], [-0.07262871414422989, -0.04869889095425606, -0.2330446094274521, 0.2801354229450226, -0.023633789271116257, 0.2511114776134491, 0.20139792561531067, 0.47381481528282166, -0.22408196330070496, -0.013003482483327389, 0.23002175986766815, 0.042705193161964417, 0.04892949014902115, -0.11060211062431335, 0.045933179557323456, -0.13433438539505005, -0.2219792902469635], [0.4216637909412384, -0.2641897201538086, -0.10265305638313293, 0.7886289954185486, -0.11070555448532104, 2.2466366291046143, 0.18924130499362946, -0.37943458557128906, -0.2706969678401947, 2.42138409614563, 0.09571701288223267, 0.08340933918952942, -0.15313784778118134, 1.8164029121398926, -0.03687170147895813, -0.0032360199838876724, 1.6126803159713745], [-0.04036317765712738, 0.14880424737930298, -0.22214341163635254, -0.22749611735343933, -0.05866536498069763, -0.22874706983566284, -0.1964872032403946, -0.0004731863737106323, -0.0868547111749649, 0.136964350938797, -0.21602118015289307, -0.22603045403957367, 0.20073729753494263, 0.07730162143707275, -0.08942776918411255, 0.03425717353820801, 0.20492023229599], [-0.16283559799194336, 0.23797883093357086, -0.07508303970098495, -0.20755654573440552, 0.023565080016851425, -0.3115691542625427, 0.03872660920023918, 0.15703147649765015, -0.09145349264144897, -0.32944434881210327, 0.12313667684793472, -0.09103760868310928, -0.2131584882736206, -0.1372215300798416, 0.1273866593837738, -0.019762473180890083, -0.0930275171995163], [-0.02116643451154232, -0.1481074094772339, 0.09874407947063446, 0.1444488763809204, -0.19932591915130615, -0.020613159984350204, -0.21731345355510712, -0.23805341124534607, 0.10189414769411087, 0.1084814965724945, -0.16426469385623932, 0.08032543957233429, 0.0658879280090332, -0.08630948513746262, 0.011472730897367, 0.23470185697078705, -0.12966330349445343], [-0.01836189441382885, -0.22169655561447144, 0.15515437722206116, -0.20131844282150269, -0.17705930769443512, 0.14481119811534882, 0.1717219203710556, -0.09560892730951309, -0.2067866325378418, 0.15351362526416779, -0.11003220081329346, 0.06002207472920418, -0.029067885130643845, -0.008945902809500694, 0.042650166898965836, 0.10949008166790009, -0.08630374819040298], [0.05409902334213257, 0.15666061639785767, -0.02842015027999878, -0.030139431357383728, -0.04743315279483795, 0.2062472105026245, -0.18092213571071625, -0.09208503365516663, 0.06442445516586304, -0.027319282293319702, -0.22634543478488922, -0.19787876307964325, -0.21710288524627686, -0.12497236579656601, -0.09612862765789032, -0.012888476252555847, -0.037323981523513794], [-0.021576713770627975, -0.20999027788639069, 0.08711415529251099, -0.14427550137043, 0.12131380289793015, -0.05917898938059807, 0.05240081995725632, 0.20746730268001556, -0.23578500747680664, -0.062408458441495895, -0.09275578707456589, 0.23017175495624542, -0.0009348305757157505, 0.14312395453453064, -0.12687450647354126, 0.10498909652233124, 0.02719077095389366], [-0.11758771538734436, 0.23822489380836487, -0.19494451582431793, -0.21105140447616577, 0.22901442646980286, 0.03766152262687683, -0.11493343114852905, -0.19732211530208588, -0.2206636369228363, 0.002903878688812256, -0.11939679831266403, 0.23622524738311768, -0.022830843925476074, -0.12424935400485992, -0.07023230195045471, 0.11604589223861694, 0.043709903955459595], [-0.04244692623615265, 0.2621442377567291, -0.26096704602241516, -0.1447189450263977, -0.0625566765666008, -1.2046234607696533, 0.12185109406709671, 0.33189329504966736, -0.2025321125984192, -1.0255706310272217, -0.015149347484111786, -0.19287656247615814, 0.05042386054992676, -1.0778687000274658, 0.10152684897184372, -0.05382035672664642, -0.8976840972900391], [0.394485205411911, -0.4509231746196747, 0.10919337719678879, 0.3110225796699524, -0.12137938290834427, 2.0319595336914062, 0.24025145173072815, 0.004642326384782791, 0.04817710444331169, 1.8248131275177002, -0.18992047011852264, 0.14136119186878204, -0.2669008672237396, 1.7401894330978394, 0.14362862706184387, -0.12303602695465088, 1.29824960231781], [-0.3133803606033325, 0.28352946043014526, -0.08301664888858795, 0.6883782744407654, -0.05062200874090195, -2.843951463699341, 0.06251917034387589, 0.7013866305351257, -0.09153211861848831, -2.339069366455078, 0.0779879167675972, -0.22104580700397491, -0.1016991138458252, -2.1095218658447266, 0.18631772696971893, -0.0891616940498352, -2.0492546558380127], [0.004976002965122461, 0.05291348695755005, 0.08171431720256805, 0.2322128564119339, -0.12260861694812775, 0.07620344310998917, 0.005866245366632938, -0.23534730076789856, -0.19452713429927826, 0.0010440004989504814, -0.2088041752576828, -0.17531569302082062, -0.048133835196495056, 0.14277315139770508, 0.20256666839122772, 0.16081048548221588, 0.10443628579378128], [0.27501407265663147, -0.5146747827529907, -0.08602967858314514, 0.46793118119239807, -0.033544234931468964, 2.3916594982147217, 0.10538876801729202, -0.3503818213939667, -0.319068044424057, 2.5200881958007812, 0.06883528083562851, 0.3105606436729431, -0.04620162397623062, 2.115615129470825, 0.2959531247615814, -0.05063600093126297, 1.7642180919647217], [-0.22324340045452118, -0.15274372696876526, -0.12218616902828217, -0.8391917943954468, 0.12832234799861908, 1.1752994060516357, 0.12831149995326996, -1.0865764617919922, 0.3005655109882355, 1.3829458951950073, 0.02795369364321232, 0.004127071239054203, 0.31428438425064087, 0.9011736512184143, -0.29804959893226624, -0.1342584639787674, 0.7390860319137573], [-0.0890616625547409, -0.12191513180732727, 0.20380017161369324, -0.17106348276138306, -0.03364457190036774, -0.22342972457408905, -0.24213188886642456, 0.06807053089141846, -0.032457783818244934, 0.06534349918365479, -0.18073928356170654, -0.0723666250705719, -0.2035096138715744, -0.1799498051404953, 0.23677560687065125, 0.0023683160543441772, 0.14080733060836792], [-0.10426081717014313, -0.04091496765613556, -0.24248525500297546, 0.1244884729385376, 0.2062261402606964, -0.04446686804294586, 0.10252058506011963, 0.01632225513458252, -0.23496435582637787, -0.06597468256950378, -0.1151629388332367, 0.1505011022090912, -0.17541508376598358, -0.17611898481845856, 0.00997990369796753, -0.04692010581493378, -0.07624514400959015], [-0.28525570034980774, 0.3072318434715271, 0.14102403819561005, 0.3121885657310486, -0.23987571895122528, -2.030352830886841, 0.007572954520583153, 0.513493537902832, 0.10401708632707596, -2.041464328765869, -0.14510586857795715, -0.1137102022767067, -0.29393044114112854, -1.6445897817611694, 0.15130768716335297, 0.009837261401116848, -1.545858383178711], [0.11413878947496414, -0.22253702580928802, -0.20361781120300293, -0.30973854660987854, 0.16202235221862793, -0.05220278725028038, -0.09950057417154312, -0.009359004907310009, 0.03199480101466179, 0.03474186733365059, 0.14810600876808167, 0.10418148338794708, -0.15313488245010376, -0.1400829255580902, -0.08805940300226212, 0.057959623634815216, -0.25988081097602844], [-0.3845851719379425, -0.0894189178943634, -0.07979024201631546, 0.2098277062177658, -0.043472204357385635, -2.7728254795074463, 0.016825420781970024, 0.28364238142967224, -0.16978882253170013, -2.5431482791900635, -0.06261143088340759, -0.44240400195121765, 0.11017175018787384, -2.0952112674713135, 0.0071893236599862576, 0.4193803668022156, -1.8869192600250244], [0.3977174758911133, -0.22993062436580658, 0.03706745803356171, 0.6707537174224854, -0.020756341516971588, 1.5096708536148071, 0.04776603356003761, -0.14042158424854279, -0.1860988885164261, 1.5067027807235718, 0.11056087911128998, -0.23105864226818085, -0.06383699923753738, 0.8567236065864563, -0.10590506345033646, -0.1787690818309784, 1.2240931987762451], [-0.074149951338768, 0.24078434705734253, 0.11629602313041687, 0.06356364488601685, -0.20892660319805145, 0.01680651307106018, -0.10218457877635956, -0.20454543828964233, 0.13946616649627686, -0.19449317455291748, 0.150680810213089, -0.13873977959156036, 0.09548914432525635, -0.2166871577501297, -0.08598068356513977, -0.23420563340187073, -0.17241325974464417], [-0.0514548160135746, -0.15355682373046875, 0.1139928326010704, 0.1492263525724411, -0.040387388318777084, -0.12334192544221878, -0.010820502415299416, -0.21505685150623322, -0.26574262976646423, 0.02670183964073658, -0.016778573393821716, 0.030941369011998177, 0.10460956394672394, 0.04764781519770622, 0.15474945306777954, -0.17201834917068481, -0.01365229208022356], [-0.3785039484500885, -0.18826407194137573, 0.053527601063251495, -0.2148984670639038, 0.07432370632886887, -0.4696168005466461, 0.09088078141212463, 0.16992513835430145, -0.056491248309612274, -0.21350786089897156, -0.06020765006542206, -0.19805549085140228, -0.06804189831018448, -0.4623803496360779, 0.1571277379989624, 0.09820406138896942, -0.22210213541984558], [0.1635604351758957, -0.0637061670422554, 0.05019254609942436, -0.0696798786520958, 0.18205368518829346, 1.509218692779541, -0.3728839159011841, -0.9679070115089417, 0.20255130529403687, 1.1760175228118896, -0.15674668550491333, 0.2841870188713074, 0.14769461750984192, 0.8362107276916504, -0.06822478771209717, -0.053989969193935394, 0.8246148228645325]], "fc1.bias": [0.3857218623161316, 0.022736549377441406, 0.18705934286117554, -0.24041196703910828, 0.1470065414905548, -0.40536046028137207, -0.09120315313339233, 0.18854224681854248, -0.8341805934906006, -0.506076991558075, -0.2699652910232544, 0.07844731211662292, 0.06157618761062622, -0.14211048185825348, 0.7999611496925354, 0.05473732948303223, 0.23868843913078308, -0.016960307955741882, 0.23772254586219788, 0.6856128573417664, 0.796226978302002, 0.7901991009712219, -0.1302047222852707, 0.20008152723312378, -0.17561233043670654, -0.25645211338996887, 0.028525590896606445, 0.07420364022254944, -0.14926253259181976, -0.004948258399963379, 0.17774412035942078, 0.2817610800266266, 0.8017244935035706, -0.21890608966350555, -0.009863986633718014, -0.20305335521697998, 0.1934737265110016, -0.3283880650997162, -0.04357682913541794, -0.018884817138314247, 0.07830017805099487, 0.07602256536483765, -0.19826842844486237, 0.6477773189544678, 0.04272305965423584, -0.18449941277503967, 0.18735677003860474, 0.09395337104797363, -0.17392556369304657, -0.2277846783399582, -0.522527813911438, 0.024703502655029297, 0.19523778557777405, 0.7409144043922424, -1.0070536136627197, 0.2942861020565033, -0.1485365778207779, 0.21513253450393677, -0.37726420164108276, 0.3911708891391754, 0.004132315516471863, -0.0365070104598999, 0.01550381537526846, -0.10961385071277618, 0.43872568011283875, 0.09498751163482666, 0.7752443552017212, -0.20989912748336792, 0.028131216764450073, -0.12303751707077026, -0.014181419275701046, 0.23925483226776123, 0.14928841590881348, 0.5456603765487671, -0.13806748390197754, 0.20282705128192902, 0.5278628468513489, 0.02350887656211853, -0.2648077607154846, -0.21157634258270264, -0.09140846133232117, 0.19559592008590698, 0.14507664740085602, 0.18376928567886353, -0.4301151633262634, 0.6669554114341736, -0.6914190053939819, 0.015155971981585026, 0.784193217754364, 0.18192431330680847, 0.042619526386260986, -0.06220422685146332, -0.6768455505371094, -0.30504950881004333, -0.7966732382774353, 0.30296680331230164, 0.1900671124458313, -0.24453195929527283, -0.04145229607820511, 0.19941529631614685], "fc2.weight": [[0.0875203087925911, 0.04484007507562637, -0.0295499749481678, 0.0830974206328392, -0.03636138141155243, -0.02764420583844185, -0.08552287518978119, 0.1532677263021469, 0.21929557621479034, 0.03611795976758003, 0.0672796294093132, 0.061368055641651154, 0.0929846242070198, 0.0949641540646553, 0.1655506044626236, 0.035911403596401215, -0.03639153391122818, -0.07221023738384247, -0.044470321387052536, 0.10730274766683578, 0.047280266880989075, 0.28664135932922363, -0.007676655426621437, -0.046693336218595505, -0.05110373720526695, 0.10618147999048233, 0.0751216784119606, -0.054732441902160645, 0.08834350854158401, 0.0905839130282402, 0.12628678977489471, 0.25447532534599304, 0.2224266082048416, -0.03819149360060692, 0.017526721581816673, -0.036463577300310135, -0.03402308374643326, -0.005212133750319481, -0.08020033687353134, 0.07624523341655731, 0.01962752640247345, 0.028771765530109406, 0.06730417162179947, 0.10762203484773636, 0.07980740815401077, -0.08761106431484222, -0.07709354162216187, -0.027581490576267242, 0.059474654495716095, 0.019109049811959267, 0.05889614298939705, 0.026455022394657135, 0.07546497136354446, 0.1727660447359085, 0.07761261612176895, 0.09365208446979523, 0.03867916017770767, -0.029009103775024414, 0.06629516929388046, 0.10845457017421722, 0.05735226720571518, -0.06042195484042168, -0.004053199663758278, -0.05828137323260307, 0.1883346289396286, 0.09277161210775375, 0.21187731623649597, 0.08101793378591537, 0.0024596601724624634, 0.020991221070289612, 0.04104836285114288, -0.047213710844516754, -0.01573093794286251, 0.219472274184227, -0.08642325550317764, 0.16152423620224, 0.24651747941970825, -0.036876991391181946, 0.04330052435398102, 0.07239438593387604, -0.05191885307431221, -0.06354866921901703, -0.0993305966258049, -0.01745663583278656, 0.02297043614089489, 0.20248349010944366, 0.03643513098359108, -0.015831654891371727, 0.13707230985164642, 0.13893316686153412, 0.061390094459056854, 0.04899022728204727, 0.03885103762149811, 0.0077783879823982716, -0.0040941303595900536, 0.2733760178089142, -0.030996784567832947, 0.0006287487922236323, -0.06499114632606506, 0.04409143701195717], [-0.12422611564397812, -0.030073046684265137, -0.052644431591033936, -0.006127074360847473, -0.058909859508275986, 0.004128260537981987, -0.00042033594218082726, -0.13616734743118286, -0.1548275351524353, 0.06570065766572952, 0.08617739379405975, -0.06983675807714462, 0.08142096549272537, 0.01199420541524887, -0.15468040108680725, 0.012379981577396393, -0.06967140734195709, 0.036795325577259064, -0.06177486106753349, -0.10113702714443207, -0.11546293646097183, -0.10104357451200485, 0.06562435626983643, 0.04152106121182442, -0.03659947216510773, 0.05881352350115776, -0.03422661870718002, 0.01659025251865387, -0.09928306937217712, 0.014337733387947083, -0.0591970793902874, -0.2066461443901062, -0.2034440040588379, 0.008235695771872997, 0.04681958258152008, 0.01242485549300909, -0.030549660325050354, 0.009572156704962254, -0.032917968928813934, -0.022778794169425964, -0.03857536241412163, -0.05061471462249756, -0.060164257884025574, -0.08566701412200928, -0.002674378454685211, 0.08980628103017807, -0.09233998507261276, -0.052525974810123444, 0.03895512968301773, 0.020909689366817474, 0.07392419129610062, 0.0012600868940353394, -0.008879855275154114, -0.2539663314819336, 0.12046226859092712, -0.05713637173175812, 0.011140584945678711, -0.05912141874432564, 0.08540690690279007, -0.17109574377536774, 0.02331545203924179, 0.05763304978609085, 0.02304447814822197, 0.050052739679813385, -0.16124331951141357, -0.0752272978425026, -0.2136334925889969, 0.030338607728481293, -0.01256127655506134, -0.014846861362457275, 0.05287885293364525, 0.08349164575338364, -0.007489650975912809, -0.2488211989402771, -0.059224214404821396, -0.17111781239509583, -0.23201917111873627, -0.05343019962310791, 0.08930667489767075, -0.15033048391342163, 0.026686718687415123, 0.07981898635625839, 0.04790864512324333, -0.027706705033779144, 0.010865950025618076, -0.33878424763679504, -0.067526675760746, 0.05897236615419388, -0.2514866888523102, -0.105436772108078, -0.03934192657470703, 0.04233696311712265, 0.06468864530324936, 0.03934402018785477, -0.12306515127420425, -0.14867179095745087, -0.04666389152407646, 0.05232914537191391, -0.03527401387691498, -0.10371647775173187], [-0.5475578308105469, 0.004447080194950104, -0.05437416583299637, -0.022775575518608093, 0.03218180686235428, -0.7812660336494446, 0.0011117759859189391, -1.2258228063583374, -1.5584272146224976, -0.2512679696083069, -0.3289778232574463, 0.06728910654783249, 0.007167413830757141, -0.04988321289420128, -0.6436330676078796, 0.052646540105342865, -0.05263731628656387, -0.04812359809875488, 0.023081041872501373, -1.1126117706298828, -1.3285022974014282, -0.8562327027320862, 0.01360265351831913, -0.08699286729097366, -0.06360191106796265, 0.05686769634485245, 0.055217646062374115, -0.0004879385232925415, -0.09113778173923492, 0.09305425733327866, -0.5918254256248474, -0.6815571784973145, -0.7548549175262451, -1.1896930932998657, -0.10305962711572647, 0.07068663090467453, 0.01663126051425934, -0.3266022801399231, -0.17149686813354492, -0.04319416731595993, -0.04827321693301201, -0.0038142800331115723, 0.06305210292339325, -0.871269702911377, 0.00024312734603881836, -0.0688273161649704, 0.019990310072898865, -0.06368018686771393, 0.06396540254354477, -0.5021458268165588, -1.2224998474121094, -0.08152924478054047, -0.0010350197553634644, -0.7648369073867798, -1.4607634544372559, -1.2041325569152832, -0.08387307822704315, -0.07904567569494247, -1.0719455480575562, -1.060954213142395, -0.04359013959765434, -0.01379925012588501, -0.09781327098608017, -0.0931757315993309, -0.732795774936676, -0.06666931509971619, -0.713970422744751, 0.07144878059625626, 0.03219606727361679, -0.026696540415287018, -0.13348382711410522, 0.07699992507696152, -0.2431313544511795, -0.7028600573539734, -0.014573968946933746, -0.11652436852455139, -0.988289475440979, -0.01947467029094696, -0.0784304216504097, -0.1006569117307663, 0.021357238292694092, -0.09433980286121368, 0.08416516333818436, -0.08400833606719971, -0.38873475790023804, -0.6865434050559998, -1.6215726137161255, -0.0983656570315361, -0.8492279052734375, -1.1728473901748657, 0.0014192089438438416, -0.07170790433883667, -1.6316819190979004, 0.0548633337020874, -1.4178529977798462, -0.41607436537742615, 0.04166913777589798, 0.061750851571559906, -0.1336042433977127, -0.682630181312561], [-0.6173170208930969, 0.04351397603750229, -0.07163633406162262, -0.07402168214321136, -0.07135070860385895, -0.7498051524162292, -0.015261245891451836, -1.2315911054611206, -1.5693440437316895, -0.32353729009628296, -0.3175649344921112, -0.05386855825781822, 0.09522723406553268, -0.019929468631744385, -0.6560927033424377, -0.09363061189651489, 0.07018627971410751, -0.03362482786178589, -0.025229714810848236, -1.104122281074524, -1.3553444147109985, -0.8462258577346802, -0.04359377920627594, -0.005788334179669619, -0.03453701734542847, -0.090877465903759, -0.015671566128730774, 0.05538389831781387, -0.04351731762290001, 0.05048530548810959, -0.6854106783866882, -0.7226464152336121, -0.6938257813453674, -1.163379192352295, -0.03399614244699478, -0.029702812433242798, 0.028732679784297943, -0.38479119539260864, -0.1472785323858261, -0.009991724975407124, 0.008282676339149475, -0.01148231327533722, -0.0710807591676712, -0.8861775994300842, -0.08271396160125732, -0.0055311089381575584, -0.021860957145690918, 0.0043058842420578, 0.00452972948551178, -0.535353422164917, -1.2472739219665527, -0.022023215889930725, -0.08362554013729095, -0.7724975347518921, -1.5058250427246094, -1.247763991355896, -0.003105536103248596, 0.06960230320692062, -1.0989187955856323, -1.0392999649047852, -0.068914033472538, -0.07508300244808197, 0.08068594336509705, -0.013887465000152588, -0.6915856599807739, -0.09705974161624908, -0.6946688890457153, 0.03721926361322403, 0.06114133447408676, -0.09137117862701416, -0.1419793963432312, -0.06604640185832977, -0.19432878494262695, -0.7030539512634277, -0.07759114354848862, -0.15473146736621857, -1.0223678350448608, 0.031041033565998077, -0.11562497168779373, -0.1567372977733612, 0.06633628159761429, -0.08694513142108917, 0.09594801813364029, 0.04400605708360672, -0.38053151965141296, -0.6769376397132874, -1.662778615951538, -0.06563659012317657, -0.8175629377365112, -1.1798259019851685, -0.0815921202301979, 0.0060267820954322815, -1.7014400959014893, -0.00929182767868042, -1.3954917192459106, -0.45811641216278076, 0.08211571723222733, -0.05671490728855133, -0.14890605211257935, -0.6789260506629944], [-0.6431149840354919, -0.08276359736919403, -0.09589607268571854, 0.0029506534337997437, 0.05331403762102127, -0.7663214206695557, -0.0682743713259697, -1.2879201173782349, -1.6219847202301025, -0.21584630012512207, -0.3040258586406708, 0.004873976111412048, -0.041115760803222656, -0.08900176733732224, -0.6814974546432495, -0.09713113307952881, 0.09745468944311142, 0.030916400253772736, -0.07567113637924194, -1.054327130317688, -1.3021079301834106, -0.8661686182022095, -0.04711633548140526, -0.06590844690799713, 0.02833005040884018, -0.08373480290174484, -0.030198656022548676, 0.09248987585306168, -0.1530037373304367, -0.03229176998138428, -0.6266853213310242, -0.7125352621078491, -0.7231442928314209, -1.1646701097488403, -0.08585364371538162, 0.029452621936798096, -0.07460175454616547, -0.35970282554626465, -0.21439440548419952, -0.082609161734581, 0.09937233477830887, 0.05658210068941116, -0.049006130546331406, -0.8837032914161682, 0.05171961337327957, -0.03919138386845589, 0.0309138223528862, -0.04300800710916519, -0.09780710190534592, -0.5627402067184448, -1.215051293373108, -0.03327740728855133, -0.05242772027850151, -0.7683831453323364, -1.5181398391723633, -1.2633273601531982, -0.01981797069311142, -0.03458571434020996, -1.0683432817459106, -1.061418056488037, 0.024928174912929535, -0.05438230186700821, 0.03409481793642044, -0.08331431448459625, -0.7953450679779053, 0.02380239963531494, -0.7151971459388733, 0.06790042668581009, -0.07462166249752045, 0.09055254608392715, -0.13809089362621307, -0.01618913561105728, -0.16738440096378326, -0.7289873957633972, -0.0670442283153534, -0.09941417723894119, -0.9811362624168396, -0.0986253023147583, 0.013791744597256184, -0.08298131823539734, 0.01950223371386528, 0.08170665055513382, -0.05877126380801201, 0.09952283650636673, -0.43782928586006165, -0.7508883476257324, -1.6781498193740845, -0.06819179654121399, -0.7684285044670105, -1.2214189767837524, 0.07935535162687302, -0.04682902246713638, -1.7004438638687134, -0.06254512816667557, -1.4014320373535156, -0.37650370597839355, -0.0008475780487060547, 0.06743873655796051, -0.11678102612495422, -0.6555371284484863]], "fc2.bias": [-2.7264230251312256, 3.1050360202789307, -17.45952606201172, -17.45490074157715, -17.453508377075195]}